Language model created by QuickLM on Sat Aug  8 21:15:11 EDT 2015
Copyright (c) 1996-2010 Carnegie Mellon University and Alexander I. Rudnicky

The model is in standard ARPA format, designed by Doug Paul while he was at MITRE.

The code that was used to produce this language model is available in Open Source.
Please visit http://www.speech.cs.cmu.edu/tools/ for more information

The (fixed) discount mass is 0.5. The backoffs are computed using the ratio method.
This model based on a corpus of 106 sentences and 136 words

\data\
ngram 1=136
ngram 2=278
ngram 3=295

\1-grams:
-1.0421 </s> -0.3010
-1.0421 <s> -0.2327
-2.2223 A -0.2984
-3.0674 ABOUT -0.3007
-2.4654 ALAN -0.2577
-3.0674 ALPHA -0.3007
-2.1644 ARE -0.2909
-2.5903 AT -0.2977
-3.0674 AWAY -0.2597
-3.0674 B -0.2999
-3.0674 BACK -0.2984
-3.0674 BACKUP -0.2597
-2.7664 BACKWARD -0.2577
-3.0674 BATTERIES -0.3003
-2.7664 BE -0.2992
-3.0674 BEACH -0.2597
-3.0674 BED -0.2999
-2.7664 BEEN -0.2995
-3.0674 BOYNTON -0.3007
-3.0674 CAN -0.2909
-2.7664 COMPUTER -0.2597
-2.7664 DATE -0.2589
-2.7664 DAY -0.2943
-2.4654 DEGREES -0.2965
-3.0674 DICTATION -0.2597
-2.5903 DID -0.2909
-2.7664 DISK -0.2950
-1.8914 DO -0.2464
-2.7664 DOING -0.2597
-2.5903 DRIVE -0.2568
-3.0674 DROID -0.2597
-3.0674 EASE -0.2597
-3.0674 EMAIL -0.2597
-3.0674 FACE -0.2597
-2.7664 FACEBOOK -0.2597
-3.0674 FAST -0.2597
-2.7664 FIVE -0.2995
-2.7664 FORTY -0.3003
-2.2223 FORWARD -0.2544
-2.7664 FREE -0.2995
-2.1132 GO -0.2548
-3.0674 GOING -0.3003
-3.0674 GOOD -0.2980
-2.7664 H -0.2992
-2.3685 HANNA -0.2568
-2.2223 HAVE -0.2456
-3.0674 HEAR -0.3007
-2.7664 HELLO -0.2585
-2.1132 HOW -0.2950
-3.0674 IMMEDIATELY -0.2597
-2.7664 IN -0.2977
-1.8122 IS -0.2916
-2.4654 IT -0.2585
-3.0674 KIND -0.3007
-3.0674 KITCHEN -0.2597
-2.7664 KNOW -0.2597
-3.0674 LANGUAGES -0.2954
-2.7664 LAST -0.2593
-2.2893 LEFT -0.2548
-3.0674 LISTENING -0.2597
-2.4654 LITTLE -0.2597
-2.5903 LONG -0.2928
-3.0674 LOUDER -0.2597
-3.0674 MADE -0.2909
-3.0674 ME -0.2597
-3.0674 MEMO -0.2597
-2.7664 MEMORY -0.2535
-2.5903 MINUS -0.2999
-2.7664 MOVE -0.2980
-2.4654 MUCH -0.2988
-2.7664 NINETY -0.2995
-2.7664 NOW -0.2597
-3.0674 OF -0.3007
-3.0674 OLD -0.2980
-2.7664 ON -0.2999
-2.7664 OPERATING -0.3003
-3.0674 OUT -0.2597
-2.7664 PACKAGE -0.2924
-3.0674 PHONE -0.2597
-2.4654 PI -0.2585
-2.5903 PLUS -0.2589
-2.5903 POGO -0.2581
-2.7664 PROCESSOR -0.2535
-3.0674 PROGRAMMED -0.2597
-3.0674 QUICKLY -0.2597
-2.5903 QUIET -0.2597
-3.0674 R -0.2999
-3.0674 RAIN -0.2597
-2.5903 RASPBERRY -0.2995
-3.0674 REBOOT -0.2597
-3.0674 RECOGNITION -0.3003
-3.0674 RECORD -0.2984
-2.2893 RIGHT -0.2548
-3.0674 ROBOT -0.2980
-2.5903 RUNNING -0.2597
-2.5903 SHUTDOWN -0.2999
-3.0674 SITE -0.2597
-2.7664 SLEEP -0.2597
-3.0674 SLOW -0.2597
-2.3685 SLOWLY -0.2597
-3.0674 SPACE -0.2597
-2.7664 SPEECH -0.2999
-3.0674 SPIN -0.2597
-3.0674 START -0.2597
-2.4654 STOP -0.2585
-2.4654 SUDO -0.2995
-3.0674 SUN -0.3007
-2.7664 SYSTEM -0.2564
-3.0674 TAKE -0.3007
-2.7664 TEN -0.2597
-3.0674 TEXT -0.3003
-3.0674 THAT -0.2597
-2.1644 THE -0.2973
-2.5903 TIME -0.2523
-2.7664 TO -0.2999
-2.7664 TODAY -0.2597
-3.0674 TONIGHT -0.2597
-2.0674 TURN -0.2950
-3.0674 TV -0.3007
-3.0674 TWO -0.2597
-2.7664 UNDERSTAND -0.2593
-3.0674 UP -0.2597
-3.0674 USE -0.2597
-2.7664 VERY -0.2992
-3.0674 WAS -0.2995
-3.0674 WEATHER -0.3003
-3.0674 WEB -0.3007
-1.7664 WHAT -0.2820
-3.0674 WHATS -0.3003
-2.7664 WHEN -0.2950
-2.5903 WHERE -0.2886
-3.0674 WHICH -0.3003
-3.0674 WHISPER -0.2597
-3.0674 WHO -0.3007
-1.6361 YOU -0.2430
-2.4654 YOUR -0.2984

\2-grams:
-2.3263 <s> ABOUT 0.0000
-2.3263 <s> ALAN -0.1761
-2.0253 <s> ARE 0.0000
-2.3263 <s> AT -0.2218
-2.0253 <s> BE 0.0000
-2.0253 <s> DID 0.0000
-1.7243 <s> DO -0.0792
-1.8492 <s> DRIVE 0.0000
-2.3263 <s> FACEBOOK 0.0000
-2.3263 <s> FORWARD -0.1963
-1.3721 <s> GO 0.0000
-2.3263 <s> HANNA -0.2041
-2.0253 <s> HELLO 0.0000
-1.3721 <s> HOW 0.0000
-1.6274 <s> IS -0.0458
-2.3263 <s> LEFT -0.1249
-2.3263 <s> LOUDER 0.0000
-2.0253 <s> MOVE 0.0000
-2.3263 <s> PHONE 0.0000
-2.3263 <s> PI -0.2430
-2.0253 <s> POGO 0.0000
-2.3263 <s> QUIET 0.0000
-1.8492 <s> RASPBERRY 0.0000
-2.3263 <s> RECORD 0.0000
-2.3263 <s> RIGHT -0.1249
-2.3263 <s> SPIN 0.0000
-2.3263 <s> START 0.0000
-1.8492 <s> STOP 0.0000
-1.7243 <s> SUDO 0.0000
-1.3263 <s> TURN 0.0000
-1.0253 <s> WHAT 0.0000
-2.3263 <s> WHATS 0.0000
-2.0253 <s> WHEN 0.0000
-1.8492 <s> WHERE 0.0000
-2.3263 <s> WHICH 0.0000
-2.3263 <s> WHISPER 0.0000
-2.3263 <s> WHO 0.0000
-1.1461 A BED 0.0000
-0.5441 A LITTLE 0.0000
-1.1461 A MEMO 0.0000
-1.1461 A WEB 0.0000
-0.3010 ABOUT FACE 0.0000
-0.6021 ALAN </s> -0.3010
-0.9031 ALAN AT -0.1249
-0.9031 ALAN DOING 0.0000
-0.3010 ALPHA DROID 0.0000
-0.3010 ARE YOU -0.2218
-0.7782 AT EASE 0.0000
-0.4771 AT THE -0.2430
-0.3010 AWAY </s> -0.3010
-0.3010 B PLUS -0.2218
-0.3010 BACK A -0.1549
-0.3010 BACKUP </s> -0.3010
-0.6021 BACKWARD </s> -0.3010
-0.6021 BACKWARD SLOWLY 0.0000
-0.3010 BATTERIES LAST -0.1761
-0.6021 BE QUIET 0.0000
-0.6021 BE VERY -0.1761
-0.3010 BEACH </s> -0.3010
-0.3010 BED TIME -0.1249
-0.6021 BEEN RUNNING 0.0000
-0.6021 BEEN UP 0.0000
-0.3010 BOYNTON BEACH 0.0000
-0.3010 CAN YOU -0.2846
-0.3010 COMPUTER </s> -0.3010
-0.6021 DATE </s> -0.3010
-0.6021 DATE TODAY 0.0000
-0.3010 DAY IS -0.2499
-0.6021 DEGREES LEFT -0.1249
-0.6021 DEGREES RIGHT -0.1249
-0.3010 DICTATION </s> -0.3010
-0.3010 DID YOU -0.2762
-0.6021 DISK DO -0.0792
-0.6021 DISK SPACE 0.0000
-1.4771 DO </s> -0.3010
-1.4771 DO EMAIL 0.0000
-0.3979 DO YOU -0.1814
-1.4771 DO YOUR -0.2430
-0.3010 DOING </s> -0.3010
-0.7782 DRIVE </s> -0.3010
-0.4771 DRIVE FORWARD -0.1091
-0.3010 DROID </s> -0.3010
-0.3010 EASE </s> -0.3010
-0.3010 EMAIL </s> -0.3010
-0.3010 FACE </s> -0.3010
-0.3010 FACEBOOK </s> -0.3010
-0.3010 FAST </s> -0.3010
-0.3010 FIVE DEGREES 0.0000
-0.3010 FORTY FIVE 0.0000
-0.6690 FORWARD </s> -0.3010
-1.1461 FORWARD A -0.1549
-1.1461 FORWARD QUICKLY 0.0000
-0.8451 FORWARD SLOWLY 0.0000
-0.6021 FREE DISK -0.1761
-0.6021 FREE MEMORY -0.1761
-1.2553 GO </s> -0.3010
-1.2553 GO AWAY 0.0000
-0.9542 GO BACKWARD 0.0000
-1.2553 GO FAST 0.0000
-0.7782 GO FORWARD -0.0580
-1.2553 GO SLOW 0.0000
-0.3010 GOING TO -0.1761
-0.3010 GOOD ARE 0.0000
-0.6021 H NOW 0.0000
-0.6021 H PLUS -0.1249
-0.6990 HANNA </s> -0.3010
-1.0000 HANNA AT -0.1249
-1.0000 HANNA DOING 0.0000
-1.0000 HANNA IN -0.1761
-0.6690 HAVE </s> -0.3010
-0.8451 HAVE A -0.2341
-0.8451 HAVE YOU -0.2846
-0.3010 HEAR ME 0.0000
-0.6021 HELLO </s> -0.3010
-0.6021 HELLO POGO -0.1249
-1.2553 HOW ARE 0.0000
-0.7782 HOW LONG 0.0000
-0.6532 HOW MUCH 0.0000
-1.2553 HOW OLD 0.0000
-0.3010 IMMEDIATELY </s> -0.3010
-0.6021 IN BOYNTON 0.0000
-0.6021 IN THE -0.2730
-1.0792 IS ALAN 0.0000
-0.9542 IS HANNA 0.0000
-0.9542 IS IT 0.0000
-0.8573 IS THE -0.1383
-1.2553 IS YOUR -0.1761
-0.6021 IT </s> -0.3010
-0.9031 IT GOING 0.0000
-0.9031 IT TODAY 0.0000
-0.3010 KIND OF 0.0000
-0.3010 KITCHEN </s> -0.3010
-0.3010 KNOW </s> -0.3010
-0.3010 LANGUAGES DO -0.0792
-0.6021 LAST </s> -0.3010
-0.6021 LAST BACKUP 0.0000
-0.4771 LEFT </s> -0.3010
-1.0792 LEFT A -0.1549
-1.0792 LEFT SLOWLY 0.0000
-0.3010 LISTENING </s> -0.3010
-0.3010 LITTLE </s> -0.3010
-0.7782 LONG DO -0.2863
-0.4771 LONG HAVE -0.2341
-0.3010 LOUDER </s> -0.3010
-0.3010 MADE YOU -0.2676
-0.3010 ME </s> -0.3010
-0.3010 MEMO </s> -0.3010
-0.6021 MEMORY </s> -0.3010
-0.6021 MEMORY DO -0.0792
-0.4771 MINUS H 0.0000
-0.7782 MINUS R 0.0000
-0.6021 MOVE BACK 0.0000
-0.6021 MOVE FORWARD -0.2688
-0.9031 MUCH DISK -0.1761
-0.6021 MUCH FREE 0.0000
-0.9031 MUCH MEMORY -0.1761
-0.3010 NINETY DEGREES 0.0000
-0.3010 NOW </s> -0.3010
-0.3010 OF ROBOT 0.0000
-0.3010 OLD ARE 0.0000
-0.6021 ON FACEBOOK 0.0000
-0.6021 ON TV 0.0000
-0.3010 OPERATING SYSTEM 0.0000
-0.3010 OUT </s> -0.3010
-0.6021 PACKAGE ARE 0.0000
-0.6021 PACKAGE DO -0.0792
-0.3010 PHONE </s> -0.3010
-0.9031 PI </s> -0.3010
-0.9031 PI ALPHA 0.0000
-0.9031 PI B 0.0000
-0.9031 PI TWO 0.0000
-0.7782 PLUS </s> -0.3010
-0.4771 PLUS TEN 0.0000
-0.4771 POGO </s> -0.3010
-0.7782 POGO STOP -0.1761
-0.6021 PROCESSOR </s> -0.3010
-0.6021 PROCESSOR DO -0.0792
-0.3010 PROGRAMMED </s> -0.3010
-0.3010 QUICKLY </s> -0.3010
-0.3010 QUIET </s> -0.3010
-0.3010 R PLUS -0.1249
-0.3010 RAIN </s> -0.3010
-0.3010 RASPBERRY PI -0.0969
-0.3010 REBOOT </s> -0.3010
-0.3010 RECOGNITION PACKAGE -0.1761
-0.3010 RECORD A -0.2688
-0.4771 RIGHT </s> -0.3010
-1.0792 RIGHT A -0.1549
-1.0792 RIGHT SLOWLY 0.0000
-0.3010 ROBOT ARE 0.0000
-0.3010 RUNNING </s> -0.3010
-0.3010 SHUTDOWN MINUS 0.0000
-0.3010 SITE </s> -0.3010
-0.3010 SLEEP </s> -0.3010
-0.3010 SLOW </s> -0.3010
-0.3010 SLOWLY </s> -0.3010
-0.3010 SPACE </s> -0.3010
-0.6021 SPEECH PACKAGE -0.1761
-0.6021 SPEECH RECOGNITION 0.0000
-0.3010 SPIN </s> -0.3010
-0.3010 START </s> -0.3010
-0.6021 STOP </s> -0.3010
-0.9031 STOP IMMEDIATELY 0.0000
-0.9031 STOP NOW 0.0000
-0.9031 SUDO REBOOT 0.0000
-0.4260 SUDO SHUTDOWN 0.0000
-0.3010 SUN OUT 0.0000
-0.6021 SYSTEM </s> -0.3010
-0.6021 SYSTEM ARE 0.0000
-0.3010 TAKE DICTATION 0.0000
-0.3010 TEN </s> -0.3010
-0.3010 TEXT TO -0.1761
-0.3010 THAT </s> -0.3010
-0.9031 THE COMPUTER 0.0000
-0.9031 THE DATE 0.0000
-1.2041 THE KITCHEN 0.0000
-1.2041 THE SUN 0.0000
-1.2041 THE TIME -0.1249
-1.2041 THE WEATHER 0.0000
-0.4771 TIME </s> -0.3010
-0.7782 TIME IS -0.2499
-0.6021 TO RAIN 0.0000
-0.6021 TO SPEECH -0.1761
-0.3010 TODAY </s> -0.3010
-0.3010 TONIGHT </s> -0.3010
-1.0000 TURN FORTY 0.0000
-0.8239 TURN LEFT 0.0000
-1.0000 TURN NINETY 0.0000
-0.8239 TURN RIGHT 0.0000
-0.3010 TV TONIGHT 0.0000
-0.3010 TWO </s> -0.3010
-0.6021 UNDERSTAND </s> -0.3010
-0.6021 UNDERSTAND THAT 0.0000
-0.3010 UP </s> -0.3010
-0.3010 USE </s> -0.3010
-0.6021 VERY QUIET 0.0000
-0.6021 VERY VERY -0.1761
-0.3010 WAS YOUR -0.2430
-0.3010 WEATHER IN -0.1761
-0.3010 WEB SITE 0.0000
-1.6021 WHAT CAN 0.0000
-1.3010 WHAT DAY 0.0000
-1.6021 WHAT DID 0.0000
-1.6021 WHAT DO -0.0792
-1.6021 WHAT GOOD 0.0000
-0.6990 WHAT IS -0.0872
-1.6021 WHAT KIND 0.0000
-1.6021 WHAT LANGUAGES 0.0000
-1.6021 WHAT OPERATING 0.0000
-1.6021 WHAT SPEECH -0.1761
-1.6021 WHAT TEXT 0.0000
-1.6021 WHAT TIME -0.2218
-0.3010 WHATS ON -0.1761
-0.6021 WHEN DO -0.0792
-0.6021 WHEN WAS 0.0000
-0.7782 WHERE DO -0.0792
-0.4771 WHERE IS -0.2071
-0.3010 WHICH PROCESSOR -0.1761
-0.3010 WHISPER </s> -0.3010
-0.3010 WHO MADE 0.0000
-1.1303 YOU </s> -0.3010
-1.4314 YOU BEEN 0.0000
-1.4314 YOU DO -0.2711
-1.0334 YOU HAVE -0.1091
-1.7324 YOU HEAR 0.0000
-1.4314 YOU KNOW 0.0000
-1.7324 YOU LISTENING 0.0000
-1.7324 YOU ON -0.1761
-1.7324 YOU PROGRAMMED 0.0000
-1.4314 YOU RUNNING 0.0000
-1.4314 YOU SLEEP 0.0000
-1.7324 YOU TAKE 0.0000
-1.4314 YOU UNDERSTAND 0.0000
-1.7324 YOU USE 0.0000
-0.9031 YOUR BATTERIES 0.0000
-0.9031 YOUR LAST -0.1761
-0.9031 YOUR OPERATING 0.0000
-0.9031 YOUR PROCESSOR -0.1761

\3-grams:
-0.3010 <s> ABOUT FACE
-0.3010 <s> ALAN </s>
-0.3010 <s> ARE YOU
-0.3010 <s> AT EASE
-0.6021 <s> BE QUIET
-0.6021 <s> BE VERY
-0.3010 <s> DID YOU
-0.3010 <s> DO YOU
-0.7782 <s> DRIVE </s>
-0.4771 <s> DRIVE FORWARD
-0.3010 <s> FACEBOOK </s>
-0.3010 <s> FORWARD </s>
-1.2553 <s> GO </s>
-1.2553 <s> GO AWAY
-0.9542 <s> GO BACKWARD
-1.2553 <s> GO FAST
-0.7782 <s> GO FORWARD
-1.2553 <s> GO SLOW
-0.3010 <s> HANNA </s>
-0.6021 <s> HELLO </s>
-0.6021 <s> HELLO POGO
-1.2553 <s> HOW ARE
-0.7782 <s> HOW LONG
-0.6532 <s> HOW MUCH
-1.2553 <s> HOW OLD
-1.0000 <s> IS ALAN
-0.6990 <s> IS HANNA
-1.0000 <s> IS IT
-1.0000 <s> IS THE
-0.3010 <s> LEFT </s>
-0.3010 <s> LOUDER </s>
-0.6021 <s> MOVE BACK
-0.6021 <s> MOVE FORWARD
-0.3010 <s> PHONE </s>
-0.3010 <s> PI ALPHA
-0.6021 <s> POGO </s>
-0.6021 <s> POGO STOP
-0.3010 <s> QUIET </s>
-0.3010 <s> RASPBERRY PI
-0.3010 <s> RECORD A
-0.3010 <s> RIGHT </s>
-0.3010 <s> SPIN </s>
-0.3010 <s> START </s>
-0.7782 <s> STOP </s>
-0.7782 <s> STOP IMMEDIATELY
-0.7782 <s> STOP NOW
-0.9031 <s> SUDO REBOOT
-0.4260 <s> SUDO SHUTDOWN
-1.0000 <s> TURN FORTY
-0.8239 <s> TURN LEFT
-1.0000 <s> TURN NINETY
-0.8239 <s> TURN RIGHT
-1.6021 <s> WHAT CAN
-1.3010 <s> WHAT DAY
-1.6021 <s> WHAT DID
-1.6021 <s> WHAT DO
-1.6021 <s> WHAT GOOD
-0.6990 <s> WHAT IS
-1.6021 <s> WHAT KIND
-1.6021 <s> WHAT LANGUAGES
-1.6021 <s> WHAT OPERATING
-1.6021 <s> WHAT SPEECH
-1.6021 <s> WHAT TEXT
-1.6021 <s> WHAT TIME
-0.3010 <s> WHATS ON
-0.6021 <s> WHEN DO
-0.6021 <s> WHEN WAS
-0.7782 <s> WHERE DO
-0.4771 <s> WHERE IS
-0.3010 <s> WHICH PROCESSOR
-0.3010 <s> WHISPER </s>
-0.3010 <s> WHO MADE
-0.3010 A BED TIME
-0.3010 A LITTLE </s>
-0.3010 A MEMO </s>
-0.3010 A WEB SITE
-0.3010 ABOUT FACE </s>
-0.3010 ALAN AT THE
-0.3010 ALAN DOING </s>
-0.3010 ALPHA DROID </s>
-0.7270 ARE YOU </s>
-1.2041 ARE YOU LISTENING
-1.2041 ARE YOU ON
-1.2041 ARE YOU PROGRAMMED
-0.9031 ARE YOU RUNNING
-0.3010 AT EASE </s>
-0.3010 AT THE COMPUTER
-0.3010 B PLUS </s>
-0.3010 BACK A LITTLE
-0.3010 BACKWARD SLOWLY </s>
-0.3010 BATTERIES LAST </s>
-0.3010 BE QUIET </s>
-0.3010 BE VERY VERY
-0.3010 BED TIME </s>
-0.3010 BEEN RUNNING </s>
-0.3010 BEEN UP </s>
-0.3010 BOYNTON BEACH </s>
-0.3010 CAN YOU DO
-0.3010 DATE TODAY </s>
-0.3010 DAY IS IT
-0.3010 DEGREES LEFT </s>
-0.3010 DEGREES RIGHT </s>
-0.7782 DID YOU HEAR
-0.4771 DID YOU UNDERSTAND
-0.3010 DISK DO YOU
-0.3010 DISK SPACE </s>
-0.3010 DO EMAIL </s>
-1.3802 DO YOU DO
-0.6812 DO YOU HAVE
-1.0792 DO YOU KNOW
-1.0792 DO YOU SLEEP
-1.3802 DO YOU TAKE
-1.3802 DO YOU USE
-0.3010 DO YOUR BATTERIES
-0.6021 DRIVE FORWARD </s>
-0.6021 DRIVE FORWARD SLOWLY
-0.6021 FIVE DEGREES LEFT
-0.6021 FIVE DEGREES RIGHT
-0.3010 FORTY FIVE DEGREES
-0.3010 FORWARD A LITTLE
-0.3010 FORWARD QUICKLY </s>
-0.3010 FORWARD SLOWLY </s>
-0.3010 FREE DISK SPACE
-0.3010 FREE MEMORY </s>
-0.3010 GO AWAY </s>
-0.6021 GO BACKWARD </s>
-0.6021 GO BACKWARD SLOWLY
-0.3010 GO FAST </s>
-0.7782 GO FORWARD </s>
-0.7782 GO FORWARD QUICKLY
-0.7782 GO FORWARD SLOWLY
-0.3010 GO SLOW </s>
-0.3010 GOING TO RAIN
-0.3010 GOOD ARE YOU
-0.3010 H NOW </s>
-0.3010 H PLUS TEN
-0.3010 HANNA AT THE
-0.3010 HANNA DOING </s>
-0.3010 HANNA IN THE
-0.6021 HAVE A BED
-0.6021 HAVE A WEB
-0.3010 HAVE YOU BEEN
-0.3010 HEAR ME </s>
-0.3010 HELLO POGO </s>
-0.3010 HOW ARE YOU
-0.7782 HOW LONG DO
-0.4771 HOW LONG HAVE
-0.9031 HOW MUCH DISK
-0.6021 HOW MUCH FREE
-0.9031 HOW MUCH MEMORY
-0.3010 HOW OLD ARE
-0.3010 IN BOYNTON BEACH
-0.3010 IN THE KITCHEN
-0.7782 IS ALAN </s>
-0.7782 IS ALAN AT
-0.7782 IS ALAN DOING
-0.9031 IS HANNA </s>
-0.9031 IS HANNA AT
-0.9031 IS HANNA DOING
-0.9031 IS HANNA IN
-0.6021 IS IT </s>
-0.9031 IS IT GOING
-0.9031 IS IT TODAY
-0.6990 IS THE DATE
-1.0000 IS THE SUN
-1.0000 IS THE TIME
-1.0000 IS THE WEATHER
-0.6021 IS YOUR OPERATING
-0.6021 IS YOUR PROCESSOR
-0.3010 IT GOING TO
-0.3010 IT TODAY </s>
-0.3010 KIND OF ROBOT
-0.3010 LANGUAGES DO YOU
-0.3010 LAST BACKUP </s>
-0.3010 LEFT A LITTLE
-0.3010 LEFT SLOWLY </s>
-0.3010 LONG DO YOUR
-0.3010 LONG HAVE YOU
-0.3010 MADE YOU </s>
-0.3010 MEMORY DO YOU
-0.6021 MINUS H NOW
-0.6021 MINUS H PLUS
-0.3010 MINUS R PLUS
-0.3010 MOVE BACK A
-0.3010 MOVE FORWARD A
-0.3010 MUCH DISK DO
-0.6021 MUCH FREE DISK
-0.6021 MUCH FREE MEMORY
-0.3010 MUCH MEMORY DO
-0.6021 NINETY DEGREES LEFT
-0.6021 NINETY DEGREES RIGHT
-0.3010 OF ROBOT ARE
-0.3010 OLD ARE YOU
-0.3010 ON FACEBOOK </s>
-0.3010 ON TV TONIGHT
-0.6021 OPERATING SYSTEM </s>
-0.6021 OPERATING SYSTEM ARE
-0.3010 PACKAGE ARE YOU
-0.3010 PACKAGE DO YOU
-0.3010 PI ALPHA DROID
-0.3010 PI B PLUS
-0.3010 PI TWO </s>
-0.3010 PLUS TEN </s>
-0.3010 POGO STOP </s>
-0.3010 PROCESSOR DO YOU
-0.3010 R PLUS TEN
-0.7782 RASPBERRY PI </s>
-0.7782 RASPBERRY PI B
-0.7782 RASPBERRY PI TWO
-0.3010 RECOGNITION PACKAGE ARE
-0.3010 RECORD A MEMO
-0.3010 RIGHT A LITTLE
-0.3010 RIGHT SLOWLY </s>
-0.3010 ROBOT ARE YOU
-0.4771 SHUTDOWN MINUS H
-0.7782 SHUTDOWN MINUS R
-0.3010 SPEECH PACKAGE DO
-0.3010 SPEECH RECOGNITION PACKAGE
-0.3010 STOP IMMEDIATELY </s>
-0.3010 STOP NOW </s>
-0.3010 SUDO REBOOT </s>
-0.3010 SUDO SHUTDOWN MINUS
-0.3010 SUN OUT </s>
-0.3010 SYSTEM ARE YOU
-0.3010 TAKE DICTATION </s>
-0.3010 TEXT TO SPEECH
-0.3010 THE COMPUTER </s>
-0.6021 THE DATE </s>
-0.6021 THE DATE TODAY
-0.3010 THE KITCHEN </s>
-0.3010 THE SUN OUT
-0.3010 THE TIME </s>
-0.3010 THE WEATHER IN
-0.3010 TIME IS IT
-0.3010 TO RAIN </s>
-0.3010 TO SPEECH PACKAGE
-0.3010 TURN FORTY FIVE
-0.7782 TURN LEFT </s>
-0.7782 TURN LEFT A
-0.7782 TURN LEFT SLOWLY
-0.3010 TURN NINETY DEGREES
-0.7782 TURN RIGHT </s>
-0.7782 TURN RIGHT A
-0.7782 TURN RIGHT SLOWLY
-0.3010 TV TONIGHT </s>
-0.3010 UNDERSTAND THAT </s>
-0.3010 VERY QUIET </s>
-0.3010 VERY VERY QUIET
-0.3010 WAS YOUR LAST
-0.3010 WEATHER IN BOYNTON
-0.3010 WEB SITE </s>
-0.3010 WHAT CAN YOU
-0.3010 WHAT DAY IS
-0.3010 WHAT DID YOU
-0.3010 WHAT DO YOU
-0.3010 WHAT GOOD ARE
-1.2041 WHAT IS ALAN
-1.2041 WHAT IS HANNA
-0.6021 WHAT IS THE
-0.9031 WHAT IS YOUR
-0.3010 WHAT KIND OF
-0.3010 WHAT LANGUAGES DO
-0.3010 WHAT OPERATING SYSTEM
-0.3010 WHAT SPEECH RECOGNITION
-0.3010 WHAT TEXT TO
-0.3010 WHAT TIME IS
-0.3010 WHATS ON TV
-0.3010 WHEN DO YOU
-0.3010 WHEN WAS YOUR
-0.3010 WHERE DO YOU
-0.6021 WHERE IS ALAN
-0.6021 WHERE IS HANNA
-0.3010 WHICH PROCESSOR DO
-0.3010 WHO MADE YOU
-0.6021 YOU BEEN RUNNING
-0.6021 YOU BEEN UP
-0.6021 YOU DO </s>
-0.6021 YOU DO EMAIL
-0.5229 YOU HAVE </s>
-0.6990 YOU HAVE A
-0.3010 YOU HEAR ME
-0.3010 YOU KNOW </s>
-0.3010 YOU LISTENING </s>
-0.3010 YOU ON FACEBOOK
-0.3010 YOU PROGRAMMED </s>
-0.3010 YOU RUNNING </s>
-0.3010 YOU SLEEP </s>
-0.3010 YOU TAKE DICTATION
-0.6021 YOU UNDERSTAND </s>
-0.6021 YOU UNDERSTAND THAT
-0.3010 YOU USE </s>
-0.3010 YOUR BATTERIES LAST
-0.3010 YOUR LAST BACKUP
-0.3010 YOUR OPERATING SYSTEM
-0.3010 YOUR PROCESSOR </s>

\end\
